digraph Tree {
node [shape=box, style="filled, rounded", color="black", fontname=helvetica] ;
edge [fontname=helvetica] ;
0 [label="petal length (cm) <= 2.45\ngini = 0.65\nsamples = 93\nvalue = [63, 47, 40]\nclass = setosa", fillcolor="#fbebe0"] ;
1 [label="gini = 0.0\nsamples = 35\nvalue = [63, 0, 0]\nclass = setosa", fillcolor="#e58139"] ;
0 -> 1 [labeldistance=2.5, labelangle=45, headlabel="True"] ;
2 [label="petal length (cm) <= 4.85\ngini = 0.5\nsamples = 58\nvalue = [0, 47, 40]\nclass = versicolor", fillcolor="#e2fbec"] ;
0 -> 2 [labeldistance=2.5, labelangle=-45, headlabel="False"] ;
3 [label="petal length (cm) <= 4.75\ngini = 0.12\nsamples = 29\nvalue = [0, 43, 3]\nclass = versicolor", fillcolor="#47e78a"] ;
2 -> 3 ;
4 [label="gini = 0.0\nsamples = 25\nvalue = [0, 39, 0]\nclass = versicolor", fillcolor="#39e581"] ;
3 -> 4 ;
5 [label="petal width (cm) <= 1.6\ngini = 0.49\nsamples = 4\nvalue = [0, 4, 3]\nclass = versicolor", fillcolor="#cef8e0"] ;
3 -> 5 ;
6 [label="gini = 0.0\nsamples = 1\nvalue = [0, 2, 0]\nclass = versicolor", fillcolor="#39e581"] ;
5 -> 6 ;
7 [label="sepal length (cm) <= 5.95\ngini = 0.48\nsamples = 3\nvalue = [0, 2, 3]\nclass = virginica", fillcolor="#d5bdf6"] ;
5 -> 7 ;
8 [label="gini = 0.0\nsamples = 1\nvalue = [0, 2, 0]\nclass = versicolor", fillcolor="#39e581"] ;
7 -> 8 ;
9 [label="gini = 0.0\nsamples = 2\nvalue = [0, 0, 3]\nclass = virginica", fillcolor="#8139e5"] ;
7 -> 9 ;
10 [label="petal width (cm) <= 1.75\ngini = 0.18\nsamples = 29\nvalue = [0, 4, 37]\nclass = virginica", fillcolor="#8f4ee8"] ;
2 -> 10 ;
11 [label="petal length (cm) <= 5.45\ngini = 0.49\nsamples = 6\nvalue = [0, 4, 3]\nclass = versicolor", fillcolor="#cef8e0"] ;
10 -> 11 ;
12 [label="petal width (cm) <= 1.55\ngini = 0.44\nsamples = 5\nvalue = [0, 4, 2]\nclass = versicolor", fillcolor="#9cf2c0"] ;
11 -> 12 ;
13 [label="sepal width (cm) <= 2.95\ngini = 0.44\nsamples = 3\nvalue = [0, 1, 2]\nclass = virginica", fillcolor="#c09cf2"] ;
12 -> 13 ;
14 [label="gini = 0.0\nsamples = 2\nvalue = [0, 0, 2]\nclass = virginica", fillcolor="#8139e5"] ;
13 -> 14 ;
15 [label="gini = 0.0\nsamples = 1\nvalue = [0, 1, 0]\nclass = versicolor", fillcolor="#39e581"] ;
13 -> 15 ;
16 [label="gini = 0.0\nsamples = 2\nvalue = [0, 3, 0]\nclass = versicolor", fillcolor="#39e581"] ;
12 -> 16 ;
17 [label="gini = 0.0\nsamples = 1\nvalue = [0, 0, 1]\nclass = virginica", fillcolor="#8139e5"] ;
11 -> 17 ;
18 [label="gini = 0.0\nsamples = 23\nvalue = [0, 0, 34]\nclass = virginica", fillcolor="#8139e5"] ;
10 -> 18 ;
}